float weightvector[totalbirds][totalfeatures]= {
{-1.776922821998596191406250000000000000000000000,3.044880151748657226562500000000000000000000000,-3.768475294113159179687500000000000000000000000,-3.371972799301147460937500000000000000000000000,-0.486722469329833984375000000000000000000000000,2.765097379684448242187500000000000000000000000,4.345465660095214843750000000000000000000000000,2.780536651611328125000000000000000000000000000,-0.198022857308387756347656250000000000000000000,2.169039249420166015625000000000000000000000000,-5.778776168823242187500000000000000000000000000,2.315966606140136718750000000000000000000000000,3.402363300323486328125000000000000000000000000,1.345223665237426757812500000000000000000000000,1.468844771385192871093750000000000000000000000,-2.054035186767578125000000000000000000000000000,-3.260339021682739257812500000000000000000000000,3.827961683273315429687500000000000000000000000,5.075562953948974609375000000000000000000000000,2.757654905319213867187500000000000000000000000},
{1.519202828407287597656250000000000000000000000,1.961035847663879394531250000000000000000000000,-5.459432125091552734375000000000000000000000000,6.626048564910888671875000000000000000000000000,8.495503425598144531250000000000000000000000000,0.806855857372283935546875000000000000000000000,-4.162662029266357421875000000000000000000000000,-5.103722572326660156250000000000000000000000000,3.570791482925415039062500000000000000000000000,-0.762029230594635009765625000000000000000000000,-6.946315765380859375000000000000000000000000000,6.209093570709228515625000000000000000000000000,5.797389507293701171875000000000000000000000000,-8.903455734252929687500000000000000000000000000,-2.397424697875976562500000000000000000000000000,-0.074962779879570007324218750000000000000000000,4.431018829345703125000000000000000000000000000,-1.245604634284973144531250000000000000000000000,0.303162693977355957031250000000000000000000000,-2.838488578796386718750000000000000000000000000},
{1.501449108123779296875000000000000000000000000,1.260589003562927246093750000000000000000000000,-0.035486340522766113281250000000000000000000000,-8.786090850830078125000000000000000000000000000,-0.830431461334228515625000000000000000000000000,-7.306976795196533203125000000000000000000000000,4.945814132690429687500000000000000000000000000,7.800238609313964843750000000000000000000000000,10.008508682250976562500000000000000000000000000,-2.241553544998168945312500000000000000000000000,-1.646943092346191406250000000000000000000000000,-2.615572929382324218750000000000000000000000000,2.403748989105224609375000000000000000000000000,-0.947895824909210205078125000000000000000000000,9.471623420715332031250000000000000000000000000,-0.027953984215855598449707031250000000000000000,0.836355149745941162109375000000000000000000000,-3.465896368026733398437500000000000000000000000,-2.267574071884155273437500000000000000000000000,3.649374485015869140625000000000000000000000000},
{-5.500764846801757812500000000000000000000000000,-10.090291976928710937500000000000000000000000000,4.080049991607666015625000000000000000000000000,7.704287052154541015625000000000000000000000000,3.982276678085327148437500000000000000000000000,0.126458600163459777832031250000000000000000000,-5.497711658477783203125000000000000000000000000,6.736820697784423828125000000000000000000000000,-0.861147940158843994140625000000000000000000000,1.243507862091064453125000000000000000000000000,10.473905563354492187500000000000000000000000000,0.998275637626647949218750000000000000000000000,-2.173185586929321289062500000000000000000000000,-4.378195285797119140625000000000000000000000000,-5.618310451507568359375000000000000000000000000,8.388739585876464843750000000000000000000000000,-6.719654560089111328125000000000000000000000000,-5.405122280120849609375000000000000000000000000,-0.624095678329467773437500000000000000000000000,9.767808914184570312500000000000000000000000000},
{3.400158643722534179687500000000000000000000000,-1.934099674224853515625000000000000000000000000,-6.177234649658203125000000000000000000000000000,7.276484012603759765625000000000000000000000000,-2.656139135360717773437500000000000000000000000,1.498672366142272949218750000000000000000000000,5.632468700408935546875000000000000000000000000,-6.262566566467285156250000000000000000000000000,-15.158127784729003906250000000000000000000000000,-2.373133420944213867187500000000000000000000000,-5.766221046447753906250000000000000000000000000,8.123186111450195312500000000000000000000000000,-6.368773937225341796875000000000000000000000000,-0.346685647964477539062500000000000000000000000,5.390096187591552734375000000000000000000000000,-8.582657814025878906250000000000000000000000000,-4.007616996765136718750000000000000000000000000,12.486758232116699218750000000000000000000000000,2.871756076812744140625000000000000000000000000,-1.129264473915100097656250000000000000000000000},
{0.210836499929428100585937500000000000000000000,-0.703474879264831542968750000000000000000000000,2.663767099380493164062500000000000000000000000,-1.304725050926208496093750000000000000000000000,-0.764820992946624755859375000000000000000000000,1.907141447067260742187500000000000000000000000,0.997456550598144531250000000000000000000000000,-1.707064867019653320312500000000000000000000000,1.573900222778320312500000000000000000000000000,-1.600185632705688476562500000000000000000000000,3.460308551788330078125000000000000000000000000,-4.237078189849853515625000000000000000000000000,-2.190629243850708007812500000000000000000000000,1.366276741027832031250000000000000000000000000,-0.187155917286872863769531250000000000000000000,-1.267302513122558593750000000000000000000000000,0.738311707973480224609375000000000000000000000,0.410319834947586059570312500000000000000000000,-0.181979745626449584960937500000000000000000000,-0.104158841073513031005859375000000000000000000},
{4.195863723754882812500000000000000000000000000,-25.617225646972656250000000000000000000000000000,-9.039553642272949218750000000000000000000000000,-24.292659759521484375000000000000000000000000000,-4.801630973815917968750000000000000000000000000,-6.964055061340332031250000000000000000000000000,-1.260516285896301269531250000000000000000000000,-15.412652969360351562500000000000000000000000000,-14.702659606933593750000000000000000000000000000,-13.642232894897460937500000000000000000000000000,10.093507766723632812500000000000000000000000000,-4.937586307525634765625000000000000000000000000,14.143691062927246093750000000000000000000000000,1.303435683250427246093750000000000000000000000,4.526538372039794921875000000000000000000000000,-6.929352283477783203125000000000000000000000000,1.348388075828552246093750000000000000000000000,-8.136351585388183593750000000000000000000000000,7.061265945434570312500000000000000000000000000,25.930398941040039062500000000000000000000000000},
{-7.631693840026855468750000000000000000000000000,-3.196761369705200195312500000000000000000000000,12.531110763549804687500000000000000000000000000,5.034674644470214843750000000000000000000000000,3.626462697982788085937500000000000000000000000,-4.178492069244384765625000000000000000000000000,-10.436397552490234375000000000000000000000000000,-6.763312339782714843750000000000000000000000000,-4.010748386383056640625000000000000000000000000,5.896619796752929687500000000000000000000000000,7.824069976806640625000000000000000000000000000,-5.606367588043212890625000000000000000000000000,1.450518608093261718750000000000000000000000000,-7.538856506347656250000000000000000000000000000,-2.647442102432250976562500000000000000000000000,3.059198856353759765625000000000000000000000000,2.989762306213378906250000000000000000000000000,6.766394138336181640625000000000000000000000000,4.588090896606445312500000000000000000000000000,9.397506713867187500000000000000000000000000000}
};
